
\data\
ngram 1=506
ngram 2=1222

\1-grams:
-1.172763	</s>
-99	<s>	-0.1692291
-2.812913	اب	-0.2947488
-2.989005	اتار	-0.3005843
-2.989005	اتنی	-0.3001382
-2.444937	اجناس	-0.3157874
-2.812913	احساس	-0.2696326
-2.989005	اداروں	-0.2945227
-2.989005	ارب	-0.3001382
-2.989005	اربوں	-0.2708281
-1.875061	اس	-0.3823617
-2.989005	اسمگل	-0.3005843
-2.989005	اسٹور	-0.299915
-2.989005	اسٹیکر	-0.3005843
-2.989005	اسکیمیں	-0.3005843
-2.386945	اسی	-0.3420581
-2.989005	اسے	-0.3005843
-2.989005	اشیاء	-0.2933909
-2.989005	اضافه	-0.2708281
-2.989005	الاقوامی	-0.3005843
-2.386945	امریکه	-0.3965346
-2.989005	امریکی	-0.3003613
-2.290035	ان	-0.3009663
-2.812913	انتها	-0.299915
-2.989005	انسانوں	-0.2952004
-2.989005	انقلاب	-0.3003613
-2.812913	انهوں	-0.4757829
-2.444937	انهیں	-0.2643334
-2.812913	انیس	-0.4762295
-2.989005	اهمیت	-0.2970025
-1.758556	اور	-0.2906361
-2.989005	اورنج	-0.3005843
-2.989005	آءٹم	-0.2904342
-2.989005	آءی	-0.3005843
-2.812913	آبادی	-0.2990209
-2.989005	آتے	-0.2965527
-2.511883	آج	-0.2954261
-2.989005	آجاءے	-0.3003613
-2.989005	آخر	-0.2708281
-2.989005	آزادهیں	-0.3005843
-2.989005	آفات	-0.2906623
-2.812913	آلودگی	-0.2970025
-2.989005	آندھی	-0.3005843
-2.989005	آنکھوں	-0.2952004
-2.989005	آکساءیڈ	-0.2933909
-2.812913	آگیا	-0.2869973
-2.812913	آگے	-0.299915
-2.989005	آیا	-0.2985732
-2.989005	اٹھا	-0.2987971
-2.591065	اپنی	-0.2681938
-2.386945	اپنے	-0.4019084
-2.989005	اکھاڑ	-0.2987971
-2.989005	اگاءیں	-0.3001382
-2.687975	اگر	-0.2963276
-2.989005	ایشیاءی	-0.2708281
-2.989005	ایف	-0.2933909
-2.989005	ایم	-0.3005843
-2.591065	ایک	-0.2956516
-2.812913	ایگری	-0.4764526
-2.812913	بات	-0.2899775
-2.989005	باعث	-0.3005843
-2.812913	بالکل	-0.2985732
-2.989005	بانوے	-0.3005843
-2.812913	باوجود	-0.2684339
-2.989005	بجاءے	-0.2996916
-2.989005	بجلی	-0.3005843
-2.989005	بجٹ	-0.2979007
-2.989005	بحران	-0.2708281
-2.989005	بخشتا	-0.2879165
-2.989005	بدترین	-0.2708281
-2.989005	برابر	-0.3003613
-2.812913	برانڈڈ	-0.2701112
-2.989005	برآمدات	-0.2708281
-2.989005	برد	-0.2987971
-2.812913	بس	-0.2996916
-2.989005	بسر	-0.3005843
-2.812913	بلکه	-0.2983491
-2.989005	بلین	-0.3005843
-2.989005	بنا	-0.299915
-2.989005	بناءے	-0.2965527
-2.687975	بناتا	-0.5889465
-2.989005	بنتے	-0.2965527
-2.989005	بنگله	-0.3005843
-2.687975	بنیادی	-0.396825
-2.812913	بولتا	-0.4764526
-2.989005	بچ	-0.3005843
-2.989005	بڑھی	-0.2965527
-2.687975	بڑی	-0.2985732
-2.989005	بڑے	-0.2990209
-2.511883	بھارت	-0.2657851
-2.511883	بھر	-0.5274977
-2.989005	بھرنے	-0.3005843
-2.989005	بھٹو	-0.2904342
-2.143907	بھی	-0.242465
-2.989005	بیج	-0.3005843
-2.989005	بیس	-0.2994682
-2.591065	بیشتر	-0.3639493
-2.989005	بین	-0.3005843
-2.511883	بے	-0.3501734
-2.989005	تا	-0.2879165
-2.989005	تاءیوان	-0.2933909
-2.989005	تازه	-0.299915
-2.812913	تاکه	-0.2965527
-2.989005	تجارت	-0.2708281
-2.989005	تحاشا	-0.2708281
-2.989005	تحفظ	-0.3003613
-2.989005	تر	-0.3003613
-2.989005	ترانوے	-0.2945227
-2.812913	تشویش	-0.3001382
-2.989005	تعداد	-0.2906623
-2.989005	تقسیم	-0.3005843
-2.989005	تمام	-0.2996916
-2.989005	تن	-0.3005843
-2.248642	تو	-0.2495432
-2.989005	توجه	-0.2708281
-2.989005	تپتی	-0.2708281
-2.812913	تک	-0.2992446
-2.687975	تھا	-0.3889388
-2.511883	تھی	-0.3363057
-2.989005	تھیں	-0.3005843
-2.989005	تھے	-0.3003613
-2.989005	تیس	-0.2994682
-2.989005	تین	-0.3003613
-2.989005	ثانی	-0.2987971
-2.812913	ثبوت	-0.2684339
-2.989005	جاءیدادیں	-0.3003613
-2.989005	جاءیں	-0.3003613
-2.989005	جاءے	-0.2708281
-2.687975	جاتی	-0.3802112
-2.989005	جارها	-0.2879165
-2.989005	جارهی	-0.2879165
-2.989005	جاسکتی	-0.2879165
-2.989005	جانتے	-0.2965527
-2.989005	جانے	-0.3005843
-2.444937	جب	-0.2949747
-2.511883	جبکه	-0.26312
-2.444937	جس	-0.4589283
-2.812913	جن	-0.2701112
-2.591065	جهاں	-0.2949747
-2.591065	جو	-0.2684339
-2.812913	جیسا	-0.2703503
-2.989005	جیسی	-0.3001382
-2.812913	جیسے	-0.299915
-2.989005	حالی	-0.2970025
-2.989005	حتی	-0.2985732
-2.989005	حوالے	-0.2945227
-2.687975	حکمران	-0.2860763
-2.812913	حکمرانوں	-0.4712917
-2.444937	حکومت	-0.327469
-2.989005	خاصی	-0.3003613
-2.989005	خاندان	-0.2979007
-2.989005	ختم	-0.3005843
-2.989005	خرید	-0.2987971
-2.989005	خسته	-0.3005843
-2.989005	خصوصا	-0.2952004
-2.989005	خواص	-0.2906623
-2.687975	خودکفیل	-0.2863067
-2.591065	خوراک	-0.2800411
-2.989005	خوش	-0.2708281
-2.687975	خوشحال	-0.2696326
-2.989005	خوشحالی	-0.3003613
-2.812913	خون	-0.3001382
-2.989005	خیال	-0.3005843
-2.989005	داری	-0.2979007
-2.989005	داموں	-0.2708281
-2.812913	دبءی	-0.3001382
-2.591065	درآمد	-0.3560095
-2.812913	دشمن	-0.2703503
-2.989005	دشواری	-0.3005843
-2.989005	دفن	-0.3005843
-2.989005	دل	-0.298125
-2.989005	دلچسپی	-0.2996916
-2.989005	دن	-0.3005843
-2.335792	دنیا	-0.4268865
-2.989005	دوباره	-0.3005843
-2.989005	دور	-0.299915
-2.989005	دوران	-0.3005843
-2.687975	دوسری	-0.6007217
-2.812913	دوسرے	-0.4730938
-2.989005	دھوپ	-0.3005843
-2.812913	دی	-0.2996916
-2.989005	دیءے	-0.2708281
-2.989005	دیتا	-0.2879165
-2.812913	دیتے	-0.472644
-2.989005	دیش	-0.3003613
-2.989005	دیکھتے	-0.2965527
-2.591065	دیگر	-0.2660265
-2.812913	دیں	-0.2987971
-2.687975	دے	-0.2958771
-2.989005	ذاتی	-0.3005843
-2.989005	ذخیره	-0.3005843
-2.989005	ذره	-0.3005843
-2.989005	ذمه	-0.3005843
-2.989005	ذکر	-0.2879165
-2.989005	رات	-0.299915
-2.989005	رعایتی	-0.3005843
-2.812913	رقبه	-0.4757829
-2.989005	رقم	-0.2945227
-2.989005	ره	-0.3005843
-2.989005	رها	-0.2879165
-2.989005	رهتی	-0.2879165
-2.989005	رهیں	-0.3003613
-2.989005	روزگار	-0.2933909
-2.687975	روپے	-0.2755771
-2.989005	رکھے	-0.2994682
-2.989005	ریاست	-0.2904342
-2.812913	ریکارڈ	-0.2696326
-2.989005	زبردستی	-0.2708281
-2.511883	زراعت	-0.3281443
-2.143907	زرعی	-0.4160733
-2.812913	زرمبادله	-0.2892916
-2.989005	زمانے	-0.2906623
-2.591065	زمین	-0.3251787
-2.989005	زندگی	-0.3005843
-2.687975	زیاده	-0.2674726
-2.812913	سات	-0.2985732
-2.989005	ساتھ	-0.2994682
-2.812913	سال	-0.2643334
-2.812913	سالوں	-0.4667536
-2.812913	سب	-0.2638484
-2.591065	سبسڈی	-0.3657439
-2.687975	ستر	-0.6004982
-2.989005	سردیوں	-0.3005843
-2.989005	سرفهرست	-0.2965527
-2.989005	سروکار	-0.2987971
-2.989005	سستے	-0.3005843
-2.989005	سعودی	-0.3005843
-2.989005	سلفر	-0.2904342
-2.989005	سمندر	-0.3005843
-2.812913	سمیت	-0.2987971
-2.989005	سنگاپور	-0.3005843
-2.989005	سهولتیں	-0.3003613
-2.687975	سو	-0.2996916
-2.989005	سود	-0.2879165
-2.989005	سپلاءی	-0.3001382
-2.989005	سکتی	-0.2879165
-2.989005	سکتے	-0.3001382
-2.989005	سکے	-0.2996916
-2.812913	سینه	-0.4764526
-1.827637	سے	-0.2469703
-2.989005	شامل	-0.2965527
-2.687975	شدید	-0.2994682
-2.989005	شرمندگی	-0.2879165
-2.989005	شروع	-0.2708281
-2.687975	شعبه	-0.2892916
-2.591065	شعبے	-0.4607822
-2.989005	شمار	-0.3001382
-2.989005	شهید	-0.3005843
-2.989005	شکار	-0.3001382
-2.989005	صحت	-0.2708281
-2.989005	صحتمند	-0.3001382
-2.812913	صحیح	-0.2872273
-2.591065	صرف	-0.2677131
-2.989005	صفر	-0.2996916
-2.812913	صنعت	-0.2947488
-2.511883	صنعتکار	-0.3399862
-2.989005	صنعتکاروں	-0.2949747
-2.989005	صنعتی	-0.2970025
-2.511883	صنعتیں	-0.2979008
-2.989005	صورت	-0.2906623
-2.687975	ضرورت	-0.2879165
-2.989005	ضروری	-0.299915
-2.989005	ضروریات	-0.2994682
-2.444937	طرح	-0.2911866
-2.511883	طرف	-0.2970025
-2.812913	طور	-0.4742163
-2.989005	طوفانوں	-0.2933909
-2.989005	عرب	-0.2708281
-2.989005	عزیز	-0.2879165
-2.989005	علاقوں	-0.2906623
-2.444937	عوام	-0.458231
-2.989005	عوض	-0.299915
-2.335792	غذاءی	-0.4430824
-2.989005	غریب	-0.2996916
-2.812913	فراهم	-0.2990209
-2.989005	فصل	-0.2904342
-2.989005	فصلیں	-0.3005843
-2.989005	فضا	-0.2708281
-2.444937	فیصد	-0.332055
-2.989005	قابل	-0.3005843
-2.989005	قابو	-0.3005843
-2.989005	قدرتی	-0.3005843
-2.687975	قرضه	-0.6011682
-2.989005	قرضوں	-0.2904342
-2.989005	قسطیں	-0.3005843
-2.989005	قسم	-0.2904342
-2.812913	قوم	-0.2643334
-2.989005	قیمتوں	-0.2906623
-2.989005	قیمتی	-0.3003613
-2.989005	قیمتیں	-0.2996916
-2.335792	لءے	-0.2930831
-2.989005	لاءے	-0.3005843
-2.989005	لاکھ	-0.3001382
-2.989005	لباس	-0.299915
-2.989005	لندن	-0.2933909
-2.989005	لهلهاتے	-0.3005843
-2.989005	لپیٹ	-0.2906623
-2.989005	لگا	-0.2985732
-2.989005	لگادی	-0.2879165
-2.989005	لگانی	-0.3005843
-2.989005	لگتے	-0.2965527
-2.989005	لگی	-0.2994682
-2.687975	لیا	-0.2865371
-2.989005	لیجاتا	-0.2879165
-2.687975	لیکن	-0.2915737
-2.812913	ماحول	-0.2994682
-2.812913	ماحولیات	-0.2703503
-2.989005	ماحولیاتی	-0.2708281
-2.989005	مبنی	-0.2879165
-2.989005	متاثر	-0.3001382
-2.989005	متحده	-0.3005843
-2.687975	محبت	-0.2979007
-2.687975	محتاج	-0.3912066
-2.989005	محترمه	-0.2996916
-2.989005	محسوس	-0.2994682
-2.812913	محلات	-0.2994682
-2.591065	محنت	-0.2633629
-2.989005	مر	-0.2987971
-2.812913	مراعات	-0.2927103
-2.989005	مرتبه	-0.2996916
-2.989005	مزدور	-0.3005843
-2.989005	مزدوروں	-0.2970025
-2.989005	مسءله	-0.3005843
-2.812913	مشتمل	-0.4640078
-2.989005	مشکل	-0.2987971
-2.989005	مشین	-0.3005843
-2.989005	معاشی	-0.3005843
-2.812913	معاوضه	-0.2703503
-2.989005	معلوم	-0.299915
-2.812913	معیشت	-0.2967776
-2.989005	مفادات	-0.2952004
-2.989005	مقابلے	-0.2906623
-2.812913	مقدار	-0.4667536
-2.989005	مل	-0.3005843
-2.989005	ملاءشیا	-0.3005843
-2.989005	ملنے	-0.2970025
-2.034762	ملک	-0.2835138
-2.812913	ملکوں	-0.2846909
-2.989005	ملکی	-0.2708281
-2.989005	ملی	-0.2708281
-2.335792	ممالک	-0.3068556
-2.591065	منتقل	-0.298125
-2.989005	مندانه	-0.3003613
-2.989005	منصوبه	-0.299915
-2.812913	منه	-0.4764526
-2.591065	مهیا	-0.2565081
-2.591065	موجوده	-0.3650718
-2.687975	مٹی	-0.2525418
-2.989005	میسر	-0.2708281
-2.989005	میٹرو	-0.3003613
-1.627277	میں	-0.2418718
-2.989005	نءی	-0.2708281
-2.989005	ندامت	-0.2987971
-2.812913	نظر	-0.2940703
-2.989005	نظیر	-0.3005843
-2.511883	نه	-0.2970025
-2.290035	نهیں	-0.2779323
-2.989005	نوٹ	-0.2708281
-2.511883	نے	-0.2643334
-2.989005	هاتھ	-0.2987971
-2.989005	هالینڈ	-0.2708281
-2.812913	هر	-0.2990209
-2.989005	هریاله	-0.3003613
-2.989005	هریالی	-0.2708281
-2.591065	هم	-0.2913461
-2.812913	هماری	-0.2985732
-2.989005	همارے	-0.2970025
-2.812913	همیں	-0.2985732
-2.989005	هند	-0.2945227
-2.989005	هندوستان	-0.2952004
-2.591065	هو	-0.2954261
-2.687975	هوءی	-0.5889465
-2.591065	هوا	-0.2769917
-2.687975	هوتا	-0.5889465
-2.591065	هوتی	-0.6858565
-2.989005	هوجاءے	-0.2933909
-2.989005	هوجاتا	-0.2879165
-2.989005	هوجاتی	-0.2879165
-2.989005	هورهی	-0.2879165
-2.989005	هوسکتی	-0.2879165
-2.687975	هونے	-0.3914328
-2.989005	هوچکی	-0.2965527
-2.989005	هوگی	-0.299915
-2.989005	هوں	-0.3005843
-2.989005	هٹایا	-0.3003613
-2.812913	هی	-0.2994682
-1.989005	هیں	-0.2877124
-1.526607	هے	-0.3556025
-2.290035	و	-0.2922561
-2.989005	واقع	-0.3001382
-2.989005	واپس	-0.2708281
-2.511883	وجه	-0.4056804
-2.989005	وسعت	-0.3005843
-2.591065	وقت	-0.2945227
-2.290035	وه	-0.2587232
-2.989005	وهاں	-0.2994682
-2.989005	ویل	-0.2933909
-2.989005	ٹرین	-0.3003613
-2.812913	ٹریکٹر	-0.2976763
-2.989005	ٹریکٹرز	-0.3005843
-2.989005	ٹھنڈک	-0.3005843
-2.989005	ٹیوب	-0.3005843
-2.989005	ٹیکس	-0.2708281
-2.989005	پا	-0.3003613
-2.989005	پاءی	-0.3005843
-2.989005	پالیسیاں	-0.2965527
-2.812913	پاناما	-0.2703503
-2.989005	پانی	-0.3005843
-2.687975	پاکستان	-0.2798073
-2.989005	پاکستانی	-0.3005843
-2.176091	پر	-0.2565081
-2.812913	پروا	-0.2567547
-2.989005	پسینے	-0.2904342
-2.989005	پنجاب	-0.3005843
-2.989005	پندره	-0.3003613
-2.989005	پهلی	-0.2708281
-2.989005	پهلے	-0.2708281
-2.812913	پوری	-0.2994682
-2.989005	پچھلے	-0.3005843
-2.989005	پڑجاتی	-0.2879165
-2.989005	پڑے	-0.3003613
-2.989005	پھر	-0.2979007
-2.989005	پھل	-0.3005843
-2.989005	پھیلاتا	-0.3003613
-2.591065	پیدا	-0.2970025
-2.444937	پیداوار	-0.3449461
-2.989005	پیداواری	-0.3005843
-2.989005	پیسوں	-0.2945227
-2.989005	پیٹ	-0.2708281
-2.989005	پیپلزپارٹی	-0.2904342
-2.989005	چند	-0.3003613
-2.989005	چوس	-0.2987971
-2.989005	چڑھاءو	-0.299915
-2.989005	چھاپنے	-0.2904342
-2.989005	چھیانوے	-0.3003613
-2.812913	چیر	-0.2684339
-2.989005	چیز	-0.2952004
-2.812913	چین	-0.3001382
-2.989005	ڈاءی	-0.3005843
-2.989005	ڈالر	-0.2904342
-2.989005	ڈھانپنے	-0.2949747
-2.989005	ڈیری	-0.3005843
-2.989005	ڈیوٹی	-0.3005843
-2.989005	ڈیڑھ	-0.3005843
-2.034762	کا	-0.3208711
-2.989005	کاربن	-0.3005843
-2.989005	کارخانے	-0.2904342
-2.812913	کاشتکار	-0.2974518
-2.591065	کاشتکاروں	-0.3271406
-2.989005	کامسءله	-0.299915
-2.290035	کر	-0.2638484
-2.444937	کرتا	-0.5880274
-2.989005	کرتاهے	-0.2979007
-2.989005	کرتی	-0.2708281
-2.989005	کرتے	-0.3005843
-2.989005	کردی	-0.2708281
-2.989005	کردیں	-0.3005843
-2.687975	کرنی	-0.2996916
-2.591065	کرنے	-0.6929147
-2.687975	کرکے	-0.2691536
-2.989005	کرے	-0.2994682
-2.511883	کسان	-0.3120797
-2.511883	کسانوں	-0.3824327
-2.591065	کسی	-0.366415
-2.989005	کل	-0.2990209
-2.812913	کلچر	-0.4764526
-2.989005	کم	-0.299915
-2.989005	کماءی	-0.2945227
-2.812913	کمپنیوں	-0.2842282
-2.591065	کمی	-0.2979007
-2.989005	کمیشن	-0.2949747
-2.248642	که	-0.2777626
-1.875061	کو	-0.2974238
-2.591065	کوءی	-0.2963276
-2.989005	کواس	-0.2945227
-2.989005	کوریا	-0.3005843
-2.687975	کپاس	-0.255025
-2.989005	کپڑوں	-0.2904342
-2.989005	کپڑے	-0.2987971
-2.989005	کچھ	-0.2987971
-2.989005	کھاد	-0.3003613
-2.989005	کھربوں	-0.3001382
-2.989005	کھلیانوں	-0.2906623
-2.989005	کھیت	-0.2933909
-2.989005	کھیتوں	-0.3005843
-1.617937	کی	-0.2823206
-2.591065	کیا	-0.268674
-2.989005	کیلءے	-0.299915
-2.989005	کینیڈا	-0.2933909
-2.591065	کیونکه	-0.3632744
-1.858671	کے	-0.3570145
-2.812913	گروتھ	-0.3001382
-2.989005	گزرتی	-0.2708281
-2.812913	گزشته	-0.3001382
-2.989005	گل	-0.2987971
-2.989005	گلزار	-0.3001382
-2.989005	گمبھیر	-0.3005843
-2.335792	گندم	-0.3111922
-2.812913	گی	-0.2696326
-2.812913	گیا	-0.2936175
-2.989005	گیاره	-0.3003613
-2.812913	گے	-0.2696326
-2.812913	یا	-0.2703503
-2.687975	یه	-0.2992446
-2.989005	یهاں	-0.2708281
-2.812913	یهی	-0.4757829

\2-grams:
-2.354108	<s> اتنی
-2.354108	<s> اجناس
-2.053078	<s> اس
-2.354108	<s> اسی
-2.053078	<s> امریکه
-2.354108	<s> ان
-2.354108	<s> انیس
-1.876987	<s> اور
-2.354108	<s> آج
-2.354108	<s> آجاءے
-2.354108	<s> آلودگی
-2.354108	<s> آگے
-2.053078	<s> اپنی
-2.354108	<s> اپنے
-2.354108	<s> اگر
-2.354108	<s> ایک
-2.354108	<s> ایگری
-2.354108	<s> بات
-2.354108	<s> باعث
-2.354108	<s> بجلی
-2.354108	<s> برانڈڈ
-2.354108	<s> بھرنے
-2.053078	<s> بھی
-2.354108	<s> بیج
-2.354108	<s> بین
-2.354108	<s> تر
-1.876987	<s> تو
-2.354108	<s> تھی
-2.354108	<s> تیس
-2.354108	<s> جبکه
-2.354108	<s> جس
-2.354108	<s> خاصی
-2.354108	<s> خرید
-2.354108	<s> درآمد
-2.354108	<s> دنیا
-2.354108	<s> دھوپ
-2.354108	<s> دے
-2.354108	<s> ریکارڈ
-2.354108	<s> زرعی
-2.354108	<s> زندگی
-2.354108	<s> زیاده
-2.354108	<s> سب
-2.354108	<s> سبسڈی
-2.354108	<s> ستر
-2.354108	<s> سمیت
-2.053078	<s> سے
-2.354108	<s> شدید
-2.354108	<s> شعبه
-2.354108	<s> شعبے
-1.876987	<s> صنعتیں
-2.354108	<s> صورت
-2.354108	<s> عوض
-2.354108	<s> غذاءی
-2.354108	<s> قرضه
-2.354108	<s> لاءے
-2.354108	<s> مرتبه
-2.354108	<s> مشتمل
-2.354108	<s> ملک
-2.053078	<s> ممالک
-2.354108	<s> مندانه
-2.354108	<s> موجوده
-1.575957	<s> میں
-1.876987	<s> نه
-2.053078	<s> نهیں
-2.354108	<s> نے
-2.354108	<s> هم
-2.354108	<s> همارے
-2.354108	<s> هوتی
-2.354108	<s> هونے
-2.354108	<s> هوگی
-2.354108	<s> هٹایا
-2.354108	<s> هیں
-2.053078	<s> هے
-2.354108	<s> ٹھنڈک
-2.354108	<s> پالیسیاں
-2.354108	<s> پاکستانی
-2.053078	<s> پر
-2.354108	<s> پھل
-2.354108	<s> پیدا
-2.354108	<s> پیداوار
-2.354108	<s> پیسوں
-2.354108	<s> چھاپنے
-2.354108	<s> کر
-2.354108	<s> کرتاهے
-2.354108	<s> کرنے
-2.354108	<s> کرکے
-2.354108	<s> کمپنیوں
-2.354108	<s> که
-1.752048	<s> کو
-2.354108	<s> کواس
-2.354108	<s> کھربوں
-1.575957	<s> کی
-1.752048	<s> کے
-2.053078	<s> گندم
-2.354108	<s> یه
-2.354108	<s> یهی
-0.60206	اب ان
-0.60206	اب ملک
-0.30103	اتار چڑھاءو
-0.30103	اتنی بڑی
-1.041393	اجناس درآمد
-1.041393	اجناس مهیا
-1.041393	اجناس میں
-1.041393	اجناس پر
-0.7403627	اجناس کی
-0.60206	احساس </s>
-0.60206	احساس کیونکه
-0.30103	اداروں سے
-0.30103	ارب روپے
-0.30103	اربوں </s>
-1.278754	اس </s>
-1.579784	اس حوالے
-1.579784	اس رقم
-1.579784	اس سال
-1.278754	اس سے
-1.278754	اس طرح
-1.579784	اس طرف
-1.579784	اس ملک
-1.278754	اس میں
-1.102662	اس وقت
-1.102662	اس کا
-0.9777236	اس کی
-1.278754	اس کے
-0.30103	اسمگل هوسکتی
-0.30103	اسٹور کرنے
-0.30103	اسٹیکر امریکی
-0.30103	اسکیمیں دوباره
-1.079181	اسی </s>
-0.60206	اسی طرح
-1.079181	اسی لءے
-1.079181	اسی مٹی
-1.079181	اسی پر
-0.30103	اسے سمندر
-0.30103	اشیاء اور
-0.30103	اضافه </s>
-0.30103	الاقوامی اداروں
-0.5642715	امریکه </s>
-1.041393	امریکه جیسا
-0.7403627	امریکه میں
-1.041393	امریکه چین
-0.30103	امریکی برانڈڈ
-1.20412	ان </s>
-1.20412	ان قرضوں
-1.20412	ان پر
-1.20412	ان کا
-1.20412	ان کسان
-0.7269987	ان کی
-1.20412	ان کے
-0.60206	انتها بڑھی
-0.60206	انتها مراعات
-0.30103	انسانوں کو
-0.30103	انقلاب آگیا
-0.1760913	انهوں نے
-1.079181	انهیں </s>
-1.079181	انهیں ان
-1.079181	انهیں اپنے
-1.079181	انهیں روزگار
-1.079181	انهیں سبسڈی
-1.079181	انهیں معلوم
-0.1760913	انیس سو
-0.30103	اهمیت کا
-1.071882	اور </s>
-1.770852	اور اب
-1.293731	اور اس
-1.770852	اور اسی
-1.770852	اور امریکه
-1.469822	اور ان
-1.770852	اور بنیادی
-1.770852	اور بھارت
-1.770852	اور تن
-1.770852	اور جن
-1.770852	اور خوراک
-1.770852	اور خوشحال
-1.770852	اور دیگر
-1.770852	اور زراعت
-1.770852	اور سلفر
-1.770852	اور صحت
-1.770852	اور صرف
-1.770852	اور غذاءی
-1.770852	اور قدرتی
-1.770852	اور مزدور
-1.770852	اور مٹی
-1.770852	اور هریاله
-1.770852	اور وه
-1.770852	اور ڈیری
-1.770852	اور کسان
-1.770852	اور کسی
-0.30103	اورنج ٹرین
-0.30103	آءٹم کی
-0.30103	آءی ایم
-0.60206	آبادی جو
-0.60206	آبادی شدید
-0.30103	آتے هیں
-1	آج بھارت
-1	آج دنیا
-1	آج هم
-1	آج همیں
-1	آج کل
-0.30103	آجاءے گی
-0.30103	آخر </s>
-0.30103	آزادهیں لهلهاتے
-0.30103	آفات میں
-0.60206	آلودگی ایک
-0.60206	آلودگی پر
-0.30103	آندھی طوفانوں
-0.30103	آنکھوں کو
-0.30103	آکساءیڈ اور
-0.60206	آگیا ضرورت
-0.60206	آگیا هے
-0.60206	آگے نظر
-0.60206	آگے هاتھ
-0.30103	آیا تو
-0.30103	اٹھا کر
-0.90309	اپنی </s>
-0.90309	اپنی خون
-0.90309	اپنی زمین
-0.90309	اپنی صنعت
-1.041393	اپنے </s>
-0.5642715	اپنے عوام
-1.041393	اپنے ملک
-0.7403627	اپنے کاشتکاروں
-0.30103	اکھاڑ کر
-0.30103	اگاءیں لیکن
-0.7781513	اگر حکومت
-0.7781513	اگر کسی
-0.7781513	اگر گندم
-0.30103	ایشیاءی </s>
-0.30103	ایف اور
-0.30103	ایم ایف
-0.90309	ایک ریاست
-0.90309	ایک زرعی
-0.90309	ایک طرف
-0.90309	ایک گمبھیر
-0.1760913	ایگری کلچر
-0.60206	بات قابل
-0.60206	بات کی
-0.30103	باعث ندامت
-0.60206	بالکل اسی
-0.60206	بالکل پروا
-0.30103	بانوے بلین
-0.60206	باوجود </s>
-0.60206	باوجود وه
-0.30103	بجاءے کسانوں
-0.30103	بجلی جیسی
-0.30103	بجٹ بھی
-0.30103	بحران </s>
-0.30103	بخشتا هے
-0.30103	بدترین </s>
-0.30103	برابر پروا
-0.60206	برانڈڈ </s>
-0.60206	برانڈڈ کمپنیوں
-0.30103	برآمدات </s>
-0.30103	برد کر
-0.60206	بس اورنج
-0.60206	بس یه
-0.30103	بسر کرے
-0.60206	بلکه دنیا
-0.60206	بلکه محلات
-0.30103	بلین ڈالر
-0.30103	بنا هوا
-0.30103	بناءے هیں
-0.1249387	بناتا هے
-0.30103	بنتے هیں
-0.30103	بنگله دیش
-0.69897	بنیادی ضروریات
-0.39794	بنیادی طور
-0.1760913	بولتا ثبوت
-0.30103	بچ جاءے
-0.30103	بڑھی هیں
-0.7781513	بڑی تعداد
-0.7781513	بڑی مقدار
-0.7781513	بڑی وجه
-0.30103	بڑے ممالک
-1	بھارت </s>
-1	بھارت جیسے
-1	بھارت خوراک
-1	بھارت سمیت
-1	بھارت و
-0.243038	بھر میں
-0.845098	بھر کے
-0.30103	بھرنے کیلءے
-0.30103	بھٹو کی
-1.414973	بھی </s>
-1.414973	بھی احساس
-1.414973	بھی اس
-1.414973	بھی اگر
-1.414973	بھی خوراک
-1.414973	بھی درآمد
-1.414973	بھی شامل
-1.414973	بھی عزیز
-1.414973	بھی قابو
-1.414973	بھی قرضه
-1.414973	بھی منصوبه
-1.414973	بھی هے
-1.414973	بھی پیٹ
-0.30103	بیج کھاد
-0.30103	بیس فیصد
-0.845098	بیشتر صنعتکار
-0.845098	بیشتر معیشت
-0.544068	بیشتر ممالک
-0.30103	بین الاقوامی
-0.6532125	بے انتها
-0.9542425	بے تحاشا
-0.9542425	بے سود
-0.9542425	بے نظیر
-0.30103	تا هے
-0.30103	تاءیوان اور
-0.30103	تازه هوا
-0.60206	تاکه زرعی
-0.60206	تاکه کسانوں
-0.30103	تجارت </s>
-0.30103	تحاشا </s>
-0.30103	تحفظ فراهم
-0.30103	تر رقبه
-0.30103	ترانوے سے
-0.60206	تشویش دور
-0.60206	تشویش پاءی
-0.30103	تعداد میں
-0.30103	تقسیم هند
-0.30103	تمام صنعتیں
-0.30103	تن ڈھانپنے
-1.30103	تو </s>
-1.30103	تو اس
-1.30103	تو انهیں
-1.30103	تو اپنے
-1.30103	تو بس
-1.30103	تو حکمران
-1.30103	تو دوسری
-1.30103	تو عوام
-1.30103	تو ملک
-1.30103	تو وه
-0.30103	توجه </s>
-0.30103	تپتی </s>
-0.60206	تک پیپلزپارٹی
-0.60206	تک کسانوں
-0.39794	تھا اور
-0.69897	تھا آج
-0.9542425	تھی اس
-0.9542425	تھی انهوں
-0.9542425	تھی اور
-0.6532125	تھی جب
-0.30103	تھیں وهاں
-0.30103	تھے انهوں
-0.30103	تیس فیصد
-0.30103	تین سالوں
-0.30103	ثانی نهیں
-0.60206	ثبوت </s>
-0.60206	ثبوت ان
-0.30103	جاءیدادیں بلکه
-0.30103	جاءیں تاکه
-0.30103	جاءے </s>
-0.69897	جاتی هیں
-0.39794	جاتی هے
-0.30103	جارها هے
-0.30103	جارهی هے
-0.30103	جاسکتی هے
-0.30103	جانتے هیں
-0.30103	جانے لگی
-1.079181	جب امریکه
-1.079181	جب انهیں
-1.079181	جب تک
-1.079181	جب ماحولیات
-1.079181	جب هماری
-1.079181	جب همیں
-1	جبکه </s>
-1	جبکه دوسری
-1	جبکه زرعی
-1	جبکه هم
-1	جبکه گندم
-0.4771213	جس سے
-0.9542425	جس مٹی
-0.6532125	جس کی
-0.60206	جن </s>
-0.60206	جن ملکوں
-0.90309	جهاں زرعی
-0.90309	جهاں نه
-0.90309	جهاں ٹیکس
-0.90309	جهاں کسی
-0.90309	جو </s>
-0.90309	جو ایک
-0.90309	جو صنعتکاروں
-0.90309	جو پوری
-0.60206	جیسا </s>
-0.60206	جیسا صنعتی
-0.30103	جیسی بنیادی
-0.60206	جیسے بڑے
-0.60206	جیسے پاناما
-0.30103	حالی کا
-0.30103	حتی که
-0.30103	حوالے سے
-0.7781513	حکمران اس
-0.7781513	حکمران اور
-0.7781513	حکمران صنعتکار
-0.1760913	حکمرانوں کو
-1.041393	حکومت اس
-1.041393	حکومت تھی
-1.041393	حکومت ملی
-0.7403627	حکومت نے
-1.041393	حکومت کو
-0.30103	خاصی مراعات
-0.30103	خاندان بھی
-0.30103	ختم کردی
-0.30103	خرید کر
-0.30103	خسته حالی
-0.30103	خصوصا اس
-0.30103	خواص میں
-0.7781513	خودکفیل هو
-0.7781513	خودکفیل هوجاءے
-0.7781513	خودکفیل هے
-0.90309	خوراک اور
-0.90309	خوراک میسر
-0.90309	خوراک میں
-0.90309	خوراک و
-0.30103	خوش </s>
-0.7781513	خوشحال </s>
-0.7781513	خوشحال تھے
-0.7781513	خوشحال ملکوں
-0.30103	خوشحالی زرمبادله
-0.60206	خون پسینے
-0.60206	خون چوس
-0.30103	خیال رکھے
-0.30103	داری بھی
-0.30103	داموں </s>
-0.60206	دبءی سعودی
-0.60206	دبءی لندن
-0.845098	درآمد کرتے
-0.544068	درآمد کرنی
-0.845098	درآمد کی
-0.60206	دشمن </s>
-0.60206	دشمن بجٹ
-0.30103	دشواری محسوس
-0.30103	دفن هوجاتا
-0.30103	دل پر
-0.30103	دلچسپی تھی
-0.30103	دن رات
-1.079181	دنیا </s>
-0.3802112	دنیا بھر
-1.079181	دنیا سے
-1.079181	دنیا کی
-0.30103	دوباره شروع
-0.30103	دور کرنے
-0.30103	دوران پهلی
-0.1249387	دوسری طرف
-0.1760913	دوسرے ملک
-0.30103	دھوپ آندھی
-0.60206	دی جاتی
-0.60206	دی جارهی
-0.30103	دیءے </s>
-0.30103	دیتا هے
-0.1760913	دیتے هیں
-0.30103	دیش دبءی
-0.30103	دیکھتے هیں
-0.90309	دیگر </s>
-0.90309	دیگر ایشیاءی
-0.90309	دیگر غذاءی
-0.90309	دیگر ممالک
-0.60206	دیں جس
-0.60206	دیں گے
-0.7781513	دے تو
-0.7781513	دے رها
-0.7781513	دے کر
-0.30103	ذاتی دلچسپی
-0.30103	ذخیره اسٹور
-0.30103	ذره برابر
-0.30103	ذمه داری
-0.30103	ذکر هے
-0.30103	رات محنت
-0.30103	رعایتی داموں
-0.1760913	رقبه زراعت
-0.30103	رقم سے
-0.30103	ره سکتے
-0.30103	رها هے
-0.30103	رهتی هے
-0.30103	رهیں گے
-0.30103	روزگار اور
-0.7781513	روپے میں
-0.7781513	روپے کا
-0.7781513	روپے کی
-0.30103	رکھے انهیں
-0.30103	ریاست کی
-0.60206	ریکارڈ </s>
-0.60206	ریکارڈ کمی
-0.30103	زبردستی </s>
-0.9542425	زراعت ملک
-0.6532125	زراعت پر
-0.9542425	زراعت کی
-0.9542425	زراعت کے
-1	زرعی </s>
-1.30103	زرعی اشیاء
-1	زرعی شعبه
-1	زرعی شعبے
-1.30103	زرعی علاقوں
-0.69897	زرعی ملک
-1.30103	زرعی ممالک
-0.60206	زرمبادله پیدا
-0.60206	زرمبادله کی
-0.30103	زمانے میں
-0.845098	زمین </s>
-0.845098	زمین اور
-0.544068	زمین کا
-0.30103	زندگی بسر
-0.7781513	زیاده </s>
-0.7781513	زیاده کمی
-0.7781513	زیاده گندم
-0.60206	سات سو
-0.60206	سات فیصد
-0.30103	ساتھ عوام
-0.60206	سال </s>
-0.60206	سال کے
-0.1760913	سالوں میں
-0.60206	سب </s>
-0.60206	سب سے
-0.845098	سبسڈی دی
-0.845098	سبسڈی دیتے
-0.544068	سبسڈی دے
-0.1249387	ستر فیصد
-0.30103	سردیوں تپتی
-0.30103	سرفهرست هیں
-0.30103	سروکار نهیں
-0.30103	سستے ٹریکٹرز
-0.30103	سعودی عرب
-0.30103	سلفر کی
-0.30103	سمندر برد
-0.60206	سمیت بیشتر
-0.60206	سمیت دیگر
-0.30103	سنگاپور بنگله
-0.30103	سهولتیں دی
-0.7781513	سو ارب
-0.7781513	سو ترانوے
-0.7781513	سو چھیانوے
-0.30103	سود هے
-0.30103	سپلاءی کرنی
-0.30103	سکتی هے
-0.30103	سکتے دوسری
-0.30103	سکے جبکه
-0.1760913	سینه چیر
-1.732394	سے </s>
-1.732394	سے اربوں
-1.732394	سے اس
-1.732394	سے امریکه
-1.732394	سے انیس
-1.732394	سے آزادهیں
-1.732394	سے آگے
-1.732394	سے بھی
-1.732394	سے بیشتر
-1.732394	سے جهاں
-1.732394	سے دیکھتے
-1.732394	سے زرعی
-1.732394	سے زیاده
-1.732394	سے غذاءی
-1.431364	سے محبت
-1.431364	سے ملک
-1.732394	سے هوتی
-1.732394	سے هی
-1.732394	سے پهلے
-1.732394	سے پچھلے
-1.732394	سے پیدا
-1.732394	سے کاشتکار
-1.732394	سے کسانوں
-1.732394	سے کم
-1.732394	سے کوءی
-1.732394	سے گندم
-0.30103	شامل هیں
-0.7781513	شدید تشویش
-0.7781513	شدید سردیوں
-0.7781513	شدید متاثر
-0.30103	شرمندگی هے
-0.30103	شروع </s>
-0.7781513	شعبه خسته
-0.7781513	شعبه خودکفیل
-0.7781513	شعبه میں
-0.4771213	شعبے میں
-0.4771213	شعبے کو
-0.30103	شمار هوتا
-0.30103	شهید محترمه
-0.30103	شکار تھا
-0.30103	صحت </s>
-0.30103	صحتمند بناتا
-0.60206	صحیح معاوضه
-0.60206	صحیح هے
-0.90309	صرف </s>
-0.90309	صرف اپنے
-0.90309	صرف ڈیڑھ
-0.90309	صرف کاشتکار
-0.30103	صفر تھی
-0.60206	صنعت اٹھا
-0.60206	صنعت کو
-0.9542425	صنعتکار جن
-0.9542425	صنعتکار صرف
-0.6532125	صنعتکار هیں
-0.9542425	صنعتکار کو
-0.30103	صنعتکاروں کے
-0.30103	صنعتی ملک
-1	صنعتیں اکھاڑ
-1	صنعتیں تھیں
-1	صنعتیں لگانی
-1	صنعتیں منتقل
-1	صنعتیں چین
-0.30103	صورت میں
-0.7781513	ضرورت اس
-0.7781513	ضرورت سے
-0.7781513	ضرورت پوری
-0.30103	ضروری هوتی
-0.30103	ضروریات جب
-1.041393	طرح </s>
-1.041393	طرح جیسے
-1.041393	طرح دنیا
-1.041393	طرح کی
-0.7403627	طرح کے
-1	طرف امریکه
-1	طرف آنکھوں
-1	طرف توجه
-1	طرف ستر
-1	طرف صحتمند
-0.1760913	طور پر
-0.30103	طوفانوں اور
-0.30103	عرب </s>
-0.30103	عزیز هے
-0.30103	علاقوں میں
-0.9542425	عوام و
-0.4771213	عوام کو
-0.6532125	عوام کی
-0.30103	عوض کوءی
-1.079181	غذاءی </s>
-0.3802112	غذاءی اجناس
-1.079181	غذاءی بحران
-1.079181	غذاءی پیداوار
-0.30103	غریب کسانوں
-0.60206	فراهم کرتا
-0.60206	فراهم کرتی
-0.30103	فصل کی
-0.30103	فصلیں اگاءیں
-0.30103	فضا </s>
-0.7403627	فیصد آبادی
-1.041393	فیصد تھی
-1.041393	فیصد رقبه
-1.041393	فیصد سے
-1.041393	فیصد کمی
-0.30103	قابل ذکر
-0.30103	قابو پا
-0.30103	قدرتی آفات
-0.1249387	قرضه لیا
-0.30103	قرضوں کی
-0.30103	قسطیں واپس
-0.30103	قسم کی
-0.60206	قوم </s>
-0.60206	قوم کے
-0.30103	قیمتوں میں
-0.30103	قیمتی زرمبادله
-0.30103	قیمتیں بے
-0.8750613	لءے </s>
-1.176091	لءے اپنی
-1.176091	لءے بھی
-1.176091	لءے جب
-1.176091	لءے قیمتی
-1.176091	لءے لباس
-1.176091	لءے کچھ
-0.30103	لاءے فصلیں
-0.30103	لاکھ روپے
-0.30103	لباس مهیا
-0.30103	لندن اور
-0.30103	لهلهاتے کھیت
-0.30103	لپیٹ میں
-0.30103	لگا تو
-0.30103	لگادی هے
-0.30103	لگانی هوں
-0.30103	لگتے هیں
-0.30103	لگی جس
-0.7781513	لیا جارها
-0.7781513	لیا لیکن
-0.7781513	لیا هے
-0.30103	لیجاتا هے
-0.7781513	لیکن اس
-0.7781513	لیکن جب
-0.7781513	لیکن غذاءی
-0.60206	ماحول انسانوں
-0.60206	ماحول مهیا
-0.60206	ماحولیات </s>
-0.60206	ماحولیات کامسءله
-0.30103	ماحولیاتی </s>
-0.30103	مبنی هے
-0.30103	متاثر هوءی
-0.30103	متحده هندوستان
-0.7781513	محبت صرف
-0.7781513	محبت کارخانے
-0.7781513	محبت کرتا
-0.69897	محتاج نهیں
-0.39794	محتاج هیں
-0.30103	محترمه بے
-0.30103	محسوس کرتا
-0.60206	محلات بناتا
-0.60206	محلات دبءی
-0.90309	محنت </s>
-0.90309	محنت بے
-0.90309	محنت کا
-0.90309	محنت کرتا
-0.30103	مر کر
-0.60206	مراعات اور
-0.60206	مراعات دیں
-0.30103	مرتبه زراعت
-0.30103	مزدور خوش
-0.30103	مزدوروں کا
-0.30103	مسءله بنا
-0.1760913	مشتمل هے
-0.30103	مشکل و
-0.30103	مشین لگادی
-0.30103	معاشی خوشحالی
-0.60206	معاوضه </s>
-0.60206	معاوضه مل
-0.30103	معلوم هوا
-0.60206	معیشت زرعی
-0.60206	معیشت کیا
-0.30103	مفادات کو
-0.30103	مقابلے میں
-0.1760913	مقدار میں
-0.30103	مل سکے
-0.30103	ملاءشیا سنگاپور
-0.30103	ملنے کا
-1.462398	ملک </s>
-1.462398	ملک اپنے
-1.462398	ملک جهاں
-1.161368	ملک سے
-1.161368	ملک غذاءی
-1.462398	ملک میں
-1.161368	ملک هونے
-1.462398	ملک هے
-1.462398	ملک و
-1.462398	ملک کو
-1.161368	ملک کی
-1.161368	ملک کے
-0.60206	ملکوں میں
-0.60206	ملکوں کو
-0.30103	ملکی </s>
-0.30103	ملی </s>
-1.146128	ممالک </s>
-1.146128	ممالک اپنے
-0.6690068	ممالک میں
-1.146128	ممالک کا
-1.146128	ممالک کو
-1.146128	ممالک کے
-0.90309	منتقل هو
-0.90309	منتقل هوچکی
-0.90309	منتقل کردیں
-0.90309	منتقل کرکے
-0.30103	مندانه ماحول
-0.30103	منصوبه هو
-0.1760913	منه بولتا
-0.90309	مهیا </s>
-0.90309	مهیا کرتا
-0.90309	مهیا کرنے
-0.90309	مهیا کی
-0.845098	موجوده حکمران
-0.544068	موجوده حکمرانوں
-0.845098	موجوده کسان
-0.7781513	مٹی </s>
-0.7781513	مٹی سے
-0.7781513	مٹی میں
-0.30103	میسر </s>
-0.30103	میٹرو بس
-1.944483	میں </s>
-1.944483	میں اتار
-1.944483	میں اس
-1.944483	میں اضافه
-1.944483	میں انقلاب
-1.944483	میں آگیا
-1.944483	میں بدترین
-1.944483	میں بناءے
-1.944483	میں بنتے
-1.944483	میں بیس
-1.944483	میں جهاں
-1.944483	میں حکمران
-1.643453	میں خودکفیل
-1.944483	میں درآمد
-1.944483	میں دفن
-1.944483	میں دن
-1.944483	میں ذاتی
-1.944483	میں رهتی
-1.944483	میں ریکارڈ
-1.944483	میں سات
-1.944483	میں سب
-1.944483	میں سرفهرست
-1.944483	میں سستے
-1.944483	میں شمار
-1.944483	میں صنعتکار
-1.944483	میں ضرورت
-1.944483	میں فصل
-1.944483	میں قرضه
-1.944483	میں ماحولیاتی
-1.944483	میں مر
-1.643453	میں منتقل
-1.944483	میں مهیا
-1.944483	میں موجوده
-1.944483	میں هر
-1.944483	میں هریالی
-1.944483	میں هی
-1.944483	میں پاکستان
-1.944483	میں کاربن
-1.944483	میں کاشتکاروں
-1.944483	میں کسی
-1.944483	میں کمی
-1.944483	میں کوءی
-1.944483	میں گزشته
-0.30103	نءی </s>
-0.30103	ندامت و
-0.60206	نظر آتے
-0.60206	نظر سے
-0.30103	نظیر بھٹو
-1	نه احساس
-1	نه اسمگل
-1	نه صرف
-1	نه منتقل
-1	نه پاناما
-1.255273	نهیں تو
-1.255273	نهیں تھا
-1.255273	نهیں دیں
-1.255273	نهیں ره
-1.255273	نهیں هے
-1.255273	نهیں پھیلاتا
-1.255273	نهیں که
-1.255273	نهیں کیا
-1.255273	نهیں کیونکه
-0.30103	نوٹ </s>
-1	نے </s>
-1	نے آءی
-1	نے اپنے
-1	نے زرعی
-1	نے ٹریکٹر
-0.30103	هاتھ نهیں
-0.30103	هالینڈ </s>
-0.60206	هر طرح
-0.60206	هر چیز
-0.30103	هریاله ماحول
-0.30103	هریالی </s>
-0.90309	هم بھارت
-0.90309	هم بھی
-0.90309	هم زرعی
-0.90309	هم گندم
-0.60206	هماری حکومت
-0.60206	هماری کپاس
-0.30103	همارے ملک
-0.60206	همیں حکومت
-0.60206	همیں کپاس
-0.30103	هند سے
-0.30103	هندوستان کو
-0.90309	هو تا
-0.90309	هو تو
-0.90309	هو سکتی
-0.90309	هو وه
-0.1249387	هوءی هے
-0.90309	هوا اور
-0.90309	هوا فضا
-0.90309	هوا هے
-0.90309	هوا که
-0.1249387	هوتا هے
-0.09691001	هوتی هے
-0.30103	هوجاءے اور
-0.30103	هوجاتا هے
-0.30103	هوجاتی هے
-0.30103	هورهی هے
-0.30103	هوسکتی هے
-0.69897	هونے لگا
-0.39794	هونے کے
-0.30103	هوچکی هیں
-0.30103	هوگی موجوده
-0.30103	هوں میٹرو
-0.30103	هٹایا گیا
-0.60206	هی صنعت
-0.60206	هی محتاج
-1.267172	هیں اور
-1.568202	هیں بالکل
-1.568202	هیں بھارت
-1.568202	هیں تاکه
-1.568202	هیں جبکه
-1.568202	هیں جو
-1.568202	هیں زراعت
-1.568202	هیں غریب
-1.568202	هیں ملکی
-1.568202	هیں هر
-1.568202	هیں هماری
-1.568202	هیں وه
-1.568202	هیں پاکستان
-1.568202	هیں که
-1.568202	هیں کپڑے
-1.568202	هیں کیونکه
-1.568202	هیں یهاں
-1.568202	هیں یهی
-1.171239	هے </s>
-1.94939	هے اب
-1.25042	هے اس
-1.472269	هے اسی
-1.64836	هے انهیں
-1.0463	هے اور
-1.94939	هے آج
-1.94939	هے اگر
-1.94939	هے بھارت
-1.64836	هے تو
-1.94939	هے جبکه
-1.94939	هے جس
-1.94939	هے جهاں
-1.94939	هے جو
-1.94939	هے جیسا
-1.94939	هے حکومت
-1.94939	هے خصوصا
-1.94939	هے دنیا
-1.94939	هے زرعی
-1.64836	هے زمین
-1.94939	هے صنعتکار
-1.94939	هے لیکن
-1.94939	هے محلات
-1.94939	هے نه
-1.94939	هے هالینڈ
-1.94939	هے وه
-1.94939	هے پاکستان
-1.94939	هے پھر
-1.25042	هے که
-1.94939	هے کپاس
-1.94939	هے کیونکه
-1.94939	هے یه
-1.255273	و امریکه
-1.255273	و خواص
-1.255273	و دشواری
-1.255273	و دیگر
-1.255273	و شرمندگی
-1.255273	و غذاءی
-1.255273	و قوم
-1.255273	و کسان
-1.255273	و گلزار
-0.30103	واقع هوءی
-0.30103	واپس </s>
-0.60206	وجه سے
-0.90309	وجه شهید
-0.60206	وجه هے
-0.30103	وسعت دیتا
-0.90309	وقت ان
-0.90309	وقت آیا
-0.90309	وقت ایگری
-0.90309	وقت زرعی
-1.255273	وه </s>
-1.255273	وه آخر
-1.255273	وه جس
-1.255273	وه دنیا
-1.255273	وه ذخیره
-1.255273	وه شدید
-1.255273	وه صنعتکار
-1.255273	وه مزدوروں
-1.255273	وه ملک
-0.30103	وهاں جب
-0.30103	ویل اور
-0.30103	ٹرین یا
-0.60206	ٹریکٹر پانی
-0.60206	ٹریکٹر پر
-0.30103	ٹریکٹرز دیءے
-0.30103	ٹھنڈک بخشتا
-0.30103	ٹیوب ویل
-0.30103	ٹیکس </s>
-0.30103	پا یا
-0.30103	پاءی جانے
-0.30103	پالیسیاں هیں
-0.60206	پاناما </s>
-0.60206	پاناما جاسکتی
-0.30103	پانی ٹیوب
-0.7781513	پاکستان سے
-0.7781513	پاکستان میں
-0.7781513	پاکستان کا
-0.30103	پاکستانی پنجاب
-1.380211	پر </s>
-1.380211	پر اسٹیکر
-1.380211	پر ایک
-1.380211	پر بھی
-1.380211	پر بے
-1.380211	پر مبنی
-1.380211	پر محنت
-1.380211	پر مشتمل
-1.380211	پر موجوده
-1.380211	پر نهیں
-1.380211	پر ڈیوٹی
-1.380211	پر کیا
-0.60206	پروا </s>
-0.60206	پروا هے
-0.30103	پسینے کی
-0.30103	پنجاب متحده
-0.30103	پندره سال
-0.30103	پهلی </s>
-0.30103	پهلے </s>
-0.60206	پوری قوم
-0.60206	پوری کرکے
-0.30103	پچھلے تین
-0.30103	پڑجاتی هے
-0.30103	پڑے گی
-0.30103	پھر بھی
-0.30103	پھل ملنے
-0.30103	پھیلاتا آلودگی
-0.90309	پیدا هوا
-0.90309	پیدا هوتا
-0.90309	پیدا هوجاتی
-0.90309	پیدا کرتا
-1	پیداوار </s>
-1	پیداوار سے
-0.5228788	پیداوار میں
-1	پیداوار کا
-0.30103	پیداواری قیمتیں
-0.30103	پیسوں سے
-0.30103	پیٹ </s>
-0.30103	پیپلزپارٹی کی
-0.30103	چند سالوں
-0.30103	چوس کر
-0.30103	چڑھاءو کیا
-0.30103	چھاپنے کی
-0.30103	چھیانوے تک
-0.60206	چیر </s>
-0.60206	چیر کر
-0.30103	چیز کو
-0.60206	چین کوریا
-0.60206	چین کینیڈا
-0.30103	ڈاءی آکساءیڈ
-0.30103	ڈالر کی
-0.30103	ڈھانپنے کے
-0.30103	ڈیری آءٹم
-0.30103	ڈیوٹی ختم
-0.30103	ڈیڑھ لاکھ
-1	کا </s>
-1.477121	کا بھی
-1.477121	کا خاندان
-1.477121	کا خون
-1.477121	کا خیال
-1.477121	کا زیاده
-1.477121	کا ستر
-1.176091	کا سینه
-1.477121	کا شکار
-1.477121	کا صحیح
-1.176091	کا منه
-1.477121	کا وقت
-1.477121	کا کوءی
-0.30103	کاربن ڈاءی
-0.30103	کارخانے کی
-0.60206	کاشتکار و
-0.60206	کاشتکار کسان
-0.845098	کاشتکاروں </s>
-0.845098	کاشتکاروں کا
-0.544068	کاشتکاروں کو
-0.30103	کامسءله پیدا
-1.255273	کر </s>
-1.255273	کر اسی
-1.255273	کر اسے
-1.255273	کر اپنی
-1.255273	کر دیتے
-1.255273	کر لیجاتا
-1.255273	کر ملاءشیا
-1.255273	کر کاشتکاروں
-1.255273	کر کھیتوں
-0.90309	کرتا تھا
-0.20412	کرتا هے
-0.30103	کرتاهے زرعی
-0.30103	کرتی </s>
-0.30103	کرتے رهیں
-0.30103	کردی </s>
-0.30103	کردیں حتی
-0.7781513	کرنی ضروری
-0.7781513	کرنی پڑجاتی
-0.7781513	کرنی پڑے
-0.09691001	کرنے کے
-0.7781513	کرکے </s>
-0.7781513	کرکے زمین
-0.7781513	کرکے نوٹ
-0.30103	کرے حکومت
-0.9542425	کسان </s>
-0.9542425	کسان اور
-0.9542425	کسان خوشحال
-0.6532125	کسان دشمن
-0.4259687	کسانوں </s>
-0.90309	کسانوں سے
-0.90309	کسانوں کو
-0.544068	کسی دوسرے
-0.845098	کسی زمانے
-0.845098	کسی قسم
-0.30103	کل دنیا
-0.1760913	کلچر گروتھ
-0.30103	کم هو
-0.30103	کماءی سے
-0.60206	کمپنیوں کی
-0.60206	کمپنیوں کے
-0.90309	کمی جبکه
-0.90309	کمی هوءی
-0.90309	کمی هورهی
-0.90309	کمی واقع
-0.30103	کمیشن کے
-1.278754	که </s>
-1.278754	که اس
-1.278754	که ان
-0.9777236	که آج
-1.278754	که تقسیم
-1.278754	که دنیا
-1.278754	که نءی
-1.278754	که وه
-1.278754	که گزشته
-1.051152	کو </s>
-1.176091	کو اس
-1.653213	کو بانوے
-1.653213	کو بلکه
-1.653213	کو بھی
-1.653213	کو بے
-1.653213	کو تازه
-1.653213	کو تجارت
-1.653213	کو تحفظ
-1.653213	کو رعایتی
-1.653213	کو زبردستی
-1.653213	کو سبسڈی
-1.653213	کو سهولتیں
-1.653213	کو سپلاءی
-1.653213	کو معاشی
-1.653213	کو نهیں
-1.653213	کو هوتی
-1.653213	کو وسعت
-1.653213	کو گل
-1.653213	کو گندم
-0.90309	کوءی بھی
-0.90309	کوءی ثانی
-0.90309	کوءی سروکار
-0.90309	کوءی معاوضه
-0.30103	کواس سے
-0.30103	کوریا تاءیوان
-0.7781513	کپاس </s>
-0.7781513	کپاس کا
-0.7781513	کپاس کی
-0.30103	کپڑوں کی
-0.30103	کپڑے ان
-0.30103	کچھ نهیں
-0.30103	کھاد ٹریکٹر
-0.30103	کھربوں روپے
-0.30103	کھلیانوں میں
-0.30103	کھیت اور
-0.30103	کھیتوں کھلیانوں
-1.311754	کی </s>
-1.913814	کی اسکیمیں
-1.913814	کی اهمیت
-1.913814	کی بالکل
-1.913814	کی برآمدات
-1.612784	کی بڑی
-1.913814	کی بیشتر
-1.913814	کی تشویش
-1.913814	کی تمام
-1.913814	کی جاءیدادیں
-1.913814	کی جاءیں
-1.612784	کی جاتی
-1.913814	کی حکومت
-1.913814	کی ذره
-1.913814	کی ذمه
-1.913814	کی زرعی
-1.913814	کی سبسڈی
-1.913814	کی صنعتیں
-1.913814	کی ضرورت
-1.913814	کی قسطیں
-1.913814	کی قیمتوں
-1.913814	کی لپیٹ
-1.913814	کی ماحولیات
-1.913814	کی محبت
-1.612784	کی محنت
-1.913814	کی مشکل
-1.913814	کی مشین
-1.913814	کی معیشت
-1.913814	کی مقدار
-1.913814	کی نظر
-1.913814	کی هے
-1.612784	کی وجه
-1.311754	کی پیداوار
-1.913814	کی پیداواری
-1.913814	کی کماءی
-1.913814	کی کپڑوں
-0.90309	کیا </s>
-0.90309	کیا هوتا
-0.90309	کیا گزرتی
-0.90309	کیا گیا
-0.30103	کیلءے خوراک
-0.30103	کینیڈا اور
-0.845098	کیونکه انهیں
-0.845098	کیونکه بنیادی
-0.544068	کیونکه وه
-1.332438	کے </s>
-1.332438	کے باوجود
-1.633469	کے بجاءے
-1.633469	کے بیشتر
-1.633469	کے خوشحال
-1.633469	کے دل
-1.633469	کے دوران
-1.633469	کے دیگر
-1.633469	کے ساتھ
-1.633469	کے شعبے
-1.633469	کے عوام
-0.7883704	کے لءے
-1.633469	کے لگتے
-1.332438	کے محتاج
-1.633469	کے مفادات
-1.633469	کے مقابلے
-1.633469	کے ممالک
-0.60206	گروتھ صفر
-0.60206	گروتھ گیاره
-0.30103	گزرتی </s>
-0.60206	گزشته پندره
-0.60206	گزشته چند
-0.30103	گل و
-0.30103	گلزار بناتا
-0.30103	گمبھیر مسءله
-0.845098	گندم </s>
-1.146128	گندم بچ
-1.146128	گندم فراهم
-1.146128	گندم میں
-1.146128	گندم و
-0.845098	گندم کی
-0.60206	گی </s>
-0.60206	گی جو
-0.60206	گیا اس
-0.60206	گیا جس
-0.30103	گیاره سات
-0.60206	گے </s>
-0.60206	گے هم
-0.60206	یا </s>
-0.60206	یا کمیشن
-0.7781513	یه بات
-0.7781513	یه جانتے
-0.7781513	یه صحیح
-0.30103	یهاں </s>
-0.1760913	یهی وجه

\end\
